<?xml version="1.0" encoding="ISO-8859-1"?>
<!-- This network was created in GeNIe Academic, which can be used for educational and research purposes only -->
<smile version="1.0" id="Network3" numsamples="1000" discsamples="10000">
	<nodes>
		<cpt id="ATFD">
			<state id="low" />
			<state id="medium" />
			<state id="high" />
			<state id="very_high" />
			<state id="mega_high" />
			<state id="ultra_high" />
			<probabilities>0.8922786177028701 0.05237580994400652 0.03887688984804769 0.01349892008612767 0.002159827213780427 0.0008099352051676601</probabilities>
		</cpt>
		<cpt id="LAA">
			<state id="low" />
			<state id="medium" />
			<state id="high" />
			<state id="very_high" />
			<state id="mega_high" />
			<probabilities>0.6965442621398301 0.06317497782658661 0.1066414609137814 0.1101511798805641 0.02348811923923793</probabilities>
		</cpt>
		<cpt id="FDP">
			<state id="low" />
			<state id="medium" />
			<state id="high" />
			<state id="very_high" />
			<probabilities>0.7537112010796221 0.1977058029689608 0.03562753036437247 0.01295546558704453</probabilities>
		</cpt>
		<cpt id="Feature_Envy">
			<state id="True" />
			<state id="False" />
			<parents>ATFD LAA FDP</parents>
			<probabilities>0.0008535991210786732 0.9991464008789214 1.706815935530076e-05 0.9999829318406447 0.0004181699042048686 0.9995818300957952 0.0008363398084097372 0.9991636601915903 8.299765393298218e-07 0.9999991700234606 3.131986940867252e-07 0.9999996868013058 1.509048253326949e-06 0.9999984909517468 1.659953078659644e-05 0.9999834004692134 3.16462372623895e-05 0.9999683537627377 0.005098471202941482 0.9949015287970585 0.0006284038542103057 0.9993715961457897 0.00439882697947214 0.9956011730205279 1.784821874776897e-05 0.9999821517812522 0.005018472906403941 0.994981527093596 0.003694581280788177 0.9963054187192119 0.003694581280788177 0.9963054187192119 9.796238244514106e-05 0.9999020376175548 0.0001959247648902821 0.9998040752351097 0.001893939393939394 0.9981060606060606 0.005681818181818182 0.9943181818181819 0.008565193671576651 0.9914348063284234 0.02818448563129414 0.9718155143687059 0.1489751383368405 0.8510248616631595 0.04282596835788325 0.9571740316421168 1.256913021618904e-05 0.9999874308697838 1.77030003044916e-06 0.9999982296999697 6.28456510809452e-06 0.9999937154348919 3.14228255404726e-05 0.9999685771744595 0.001811594202898551 0.9981884057971013 0.0003293807641633729 0.9996706192358367 0.001358695652173913 0.9986413043478261 0.005434782608695652 0.9945652173913043 0.1666666666666667 0.8333333333333333 0.08333333333333334 0.9166666666666667 0.08333333333333334 0.9166666666666667 0.1666666666666667 0.8333333333333333 0.5 0.5 0.5 0.5 0.5 0.5 0.5 0.5 0.003820532915360501 0.9961794670846396 0.04091692789968653 0.9590830721003135 0.02223746081504702 0.9777625391849529 0.001637371249440215 0.9983626287505597 5.986590038314175e-05 0.9999401340996167 1.496647509578544e-05 0.9999850335249041 2.112914131169709e-05 0.9999788708586882 8.979885057471264e-05 0.9999102011494253 0.025 0.9750000000000001 0.007142857142857143 0.9928571428571429 0.025 0.9750000000000001 0.025 0.9750000000000001 0.25 0.75 0.125 0.875 0.25 0.75 0.25 0.75 0.5 0.5 0.5 0.5 0.5 0.5 0.5 0.5 0.06819172113289761 0.9318082788671024 0.08901597676107478 0.9109840232389251 0.1216583365372293 0.8783416634627706 0.003788428951827644 0.9962115710481723 0.01143790849673203 0.988562091503268 0.002859477124183007 0.997140522875817 0.003812636165577342 0.9961873638344226 0.01143790849673203 0.988562091503268 0.25 0.75 0.25 0.75 0.25 0.75 0.125 0.875 0.5 0.5 0.5 0.5 0.5 0.5 0.5 0.5 0.5 0.5 0.5 0.5 0.5 0.5 0.5 0.5 0.3765432098765433 0.6234567901234568 0.1255144032921811 0.8744855967078189 0.3765432098765433 0.6234567901234568 0.482363315696649 0.517636684303351 0.388888888888889 0.6111111111111112 0.388888888888889 0.6111111111111112 0.388888888888889 0.6111111111111112 0.388888888888889 0.6111111111111112 0.5 0.5 0.5 0.5 0.5 0.5 0.5 0.5 0.5 0.5 0.5 0.5 0.5 0.5 0.5 0.5 0.5 0.5 0.5 0.5 0.5 0.5 0.5 0.5 0.34375 0.65625 0.34375 0.65625 0.34375 0.65625 0.3359375 0.6640625 0.375 0.625 0.375 0.625 0.375 0.625 0.375 0.625 0.5 0.5 0.5 0.5 0.5 0.5 0.5 0.5 0.5 0.5 0.5 0.5 0.5 0.5 0.5 0.5 0.5 0.5 0.5 0.5 0.5 0.5 0.5 0.5</probabilities>
		</cpt>
	</nodes>
	<extensions>
		<genie version="1.0" app="GeNIe 2.1.1104.0 ACADEMIC" name="Network3" faultnameformat="nodestate">
			<node id="Feature_Envy">
				<name>Feature Envy</name>
				<interior color="e5f6f7" />
				<outline color="000080" />
				<font color="000000" name="Arial" size="8" />
				<position>504 157 580 204</position>
				<barchart active="true" width="128" height="64" />
			</node>
			<node id="ATFD">
				<name>ATFD</name>
				<interior color="e5f6f7" />
				<outline color="000080" />
				<font color="000000" name="Arial" size="8" />
				<position>331 398 376 426</position>
				<barchart active="true" width="128" height="126" />
			</node>
			<node id="LAA">
				<name>LAA</name>
				<interior color="e5f6f7" />
				<outline color="000080" />
				<font color="000000" name="Arial" size="8" />
				<position>519 401 561 427</position>
				<barchart active="true" width="128" height="108" />
			</node>
			<node id="FDP">
				<name>FDP</name>
				<interior color="e5f6f7" />
				<outline color="000080" />
				<font color="000000" name="Arial" size="8" />
				<position>713 406 753 431</position>
				<barchart active="true" width="128" height="90" />
			</node>
		</genie>
	</extensions>
</smile>
