<?xml version="1.0" encoding="ISO-8859-1"?>
<!-- This network was created in GeNIe Academic, which can be used for educational and research purposes only -->
<smile version="1.0" id="Network2" numsamples="1000" discsamples="10000">
	<nodes>
		<cpt id="loc">
			<state id="low" />
			<state id="mid" />
			<state id="high" />
			<state id="very_high" />
			<probabilities>0.9303455723430069 0.05993520518541388 0.0059395248415887 0.00377969762999053</probabilities>
		</cpt>
		<cpt id="cyclo">
			<state id="low" />
			<state id="mid" />
			<state id="high" />
			<state id="very_high" />
			<probabilities>0.9017278617710585 0.0764038876889848 0.01835853131749453 0.003509719222462204</probabilities>
		</cpt>
		<cpt id="maxnesting">
			<state id="low" />
			<state id="mid" />
			<state id="high" />
			<state id="very_high" />
			<probabilities>0.6735961123155009 0.1627969762402019 0.1104211663048852 0.05318574513941202</probabilities>
		</cpt>
		<cpt id="noav">
			<state id="low" />
			<state id="mid" />
			<state id="high" />
			<state id="very_high" />
			<probabilities>0.7543196485515026 0.1619870410940213 0.06614471164701144 0.01754859870746483</probabilities>
		</cpt>
		<cpt id="Node1">
			<state id="True" />
			<state id="False" />
			<parents>loc cyclo maxnesting noav</parents>
			<probabilities>1.111124506403623e-10 0.9999999998888875 2.153360925916383e-08 0.9999999784663908 0.03994169563981077 0.9600583043601892 6.513916800897059e-05 0.9999348608319909 1.386056322756068e-08 0.9999999861394367 3.002917883451191e-08 0.9999999699708211 5.393676316285006e-07 0.9999994606323682 0.0001057160557991861 0.9998942839442009 1.107586644262455e-07 0.9999998892413356 2.717116314129118e-07 0.9999997282883687 1.718844287239255e-06 0.9999982811557129 0.0004679553572008873 0.9995320446427991 1.224883146519416e-05 0.9999877511685347 6.889967699171717e-06 0.9999931100323008 5.830848697480859e-05 0.9999416915130253 0.007055326923951838 0.9929446730760482 0.01405723614819453 0.9859427638518055 0.01405723614819453 0.9859427638518055 0.1265151253337508 0.8734848746662491 0.1265151253337508 0.8734848746662491 7.600149301575763e-06 0.9999923998506984 1.044681640026347e-05 0.9999895531835997 7.260969084811226e-05 0.9999273903091519 0.008785772592621583 0.9912142274073784 0.0001971471593610378 0.999802852840639 5.330859189122461e-05 0.9999466914081087 0.09944890801596706 0.9005510919840329 0.00370198554800171 0.9962980144519983 0.0001126381101618152 0.9998873618898381 7.20883905035617e-05 0.9999279116094965 8.275452991480298e-05 0.9999172454700852 0.01621988786330138 0.9837801121366986 0.4416042179870181 0.558395782012982 0.4416042179870181 0.558395782012982 0.4416042179870181 0.558395782012982 0.4416042179870181 0.558395782012982 0.002208021089935091 0.997791978910065 0.003450032953023579 0.9965499670469764 0.05520052724837726 0.9447994727516228 0.05520052724837726 0.9447994727516228 0.1472014059956727 0.8527985940043274 0.01635571177729696 0.983644288222703 0.1472014059956727 0.8527985940043274 0.1472014059956727 0.8527985940043274 0.4416042179870181 0.558395782012982 0.4416042179870181 0.558395782012982 0.4416042179870181 0.558395782012982 0.4416042179870181 0.558395782012982 0.2554368815121384 0.7445631184878615 0.2554368815121384 0.7445631184878615 0.2554368815121384 0.7445631184878615 0.2554368815121384 0.7445631184878615 0.2554368815121384 0.7445631184878615 0.2554368815121384 0.7445631184878615 0.2554368815121384 0.7445631184878615 0.2554368815121384 0.7445631184878615 0.2554368815121384 0.7445631184878615 0.2554368815121384 0.7445631184878615 0.2554368815121384 0.7445631184878615 0.2554368815121384 0.7445631184878615 0.2554368815121384 0.7445631184878615 0.2554368815121384 0.7445631184878615 0.2554368815121384 0.7445631184878615 0.2554368815121384 0.7445631184878615 0.1132110125758655 0.8867889874241346 0.007075688285991593 0.9929243117140084 0.02830275314396637 0.9716972468560336 0.1132110125758655 0.8867889874241346 0.2971712552399439 0.7028287447600561 0.03301902835999376 0.9669809716400062 0.2026992015344429 0.7973007984655571 0.4918868502095978 0.5081131497904023 0.0150943643755419 0.9849056356244582 0.375029124807266 0.6249708751927339 0.33423181855895 0.66576818144105 0.5537735910938855 0.4462264089061145 0.3214099134127755 0.6785900865872245 0.002227478353193861 0.9977725216468062 0.1428524783531939 0.8571475216468061 0.1425586146044071 0.8574413853955929 0.805500069564215 0.1944999304357849 0.805500069564215 0.1944999304357849 0.805500069564215 0.1944999304357849 0.805500069564215 0.1944999304357849 0.04530357225671685 0.9546964277432832 0.1994781746951907 0.8005218253048092 0.1818139881182421 0.8181860118817578 0.01132589306417921 0.9886741069358208 0.2003297930662115 0.7996702069337884 0.133640127149936 0.866359872850064 0.2272436154071524 0.7727563845928477 0.2495292907454767 0.7504707092545233 0.2020707364790466 0.7979292635209534 0.1544619720063555 0.8455380279936444 0.2500556610277679 0.749944338972232 0.7309818605298273 0.2690181394701728 0.389866808221785 0.6101331917782149 0.389866808221785 0.6101331917782149 0.389866808221785 0.6101331917782149 0.389866808221785 0.6101331917782149 0.008860609277767844 0.9911393907222321 0.0009845121419742048 0.9990154878580257 0.001417697484442855 0.9985823025155572 0.03544243711107137 0.9645575628889287 0.1298733351027723 0.8701266648972277 0.7112420834439233 0.2887579165560767 0.2893670834439233 0.7106329165560767 0.7407797336164436 0.2592202663835564 0.5423746099153232 0.457625390084677 0.2616949843966129 0.7383050156033871 0.5002507373367771 0.499749262663223 0.9816949843966131 0.01830501560338708 0.2635531233453005 0.7364468766546995 0.2635531233453005 0.7364468766546995 0.2635531233453005 0.7364468766546995 0.2635531233453005 0.7364468766546995 0.2635531233453005 0.7364468766546995 0.2635531233453005 0.7364468766546995 0.2635531233453005 0.7364468766546995 0.2635531233453005 0.7364468766546995 0.6317765616726503 0.3682234383273498 0.6317765616726503 0.3682234383273498 0.9079441404181625 0.09205585958183744 0.6317765616726503 0.3682234383273498 0.6317765616726503 0.3682234383273498 0.9079441404181625 0.09205585958183744 0.6317765616726503 0.3682234383273498 0.6317765616726503 0.3682234383273498 0.1593773081573228 0.8406226918426773 0.1593773081573228 0.8406226918426773 0.1593773081573228 0.8406226918426773 0.1593773081573228 0.8406226918426773 0.07968865407866141 0.9203113459213387 0.01992216351966535 0.9800778364803346 0.07968865407866141 0.9203113459213387 0.07968865407866141 0.9203113459213387 0.7197924360524409 0.2802075639475591 0.7197924360524409 0.2802075639475591 0.7197924360524409 0.2802075639475591 0.968865826228049 0.03113417377195101 0.5796886540786614 0.4203113459213387 0.5796886540786614 0.4203113459213387 0.8949221635196654 0.1050778364803347 0.5796886540786614 0.4203113459213387 0.3298327443877708 0.6701672556122292 0.3298327443877708 0.6701672556122292 0.3298327443877708 0.6701672556122292 0.3298327443877708 0.6701672556122292 0.3298327443877708 0.6701672556122292 0.3298327443877708 0.6701672556122292 0.3298327443877708 0.6701672556122292 0.3298327443877708 0.6701672556122292 0.9581145465242357 0.04188545347576433 0.8324581860969427 0.1675418139030573 0.8324581860969427 0.1675418139030573 0.9813842428996603 0.0186157571003397 0.8324581860969427 0.1675418139030573 0.8324581860969427 0.1675418139030573 0.9813842428996603 0.0186157571003397 0.9581145465242357 0.04188545347576433 0.50359401126502 0.4964059887349799 0.50359401126502 0.4964059887349799 0.50359401126502 0.4964059887349799 0.50359401126502 0.4964059887349799 0.7517970056325101 0.24820299436749 0.7517970056325101 0.24820299436749 0.9379492514081276 0.06205074859187249 0.7517970056325101 0.24820299436749 0.83453133708834 0.16546866291166 0.83453133708834 0.16546866291166 0.958632834272085 0.04136716572791499 0.958632834272085 0.04136716572791499 0.875898502816255 0.124101497183745 0.9689746257040638 0.03102537429593625 0.875898502816255 0.124101497183745 0.9862109447573616 0.01378905524263833 0.7508238608828457 0.2491761391171543 0.7508238608828457 0.2491761391171543 0.7508238608828457 0.2491761391171543 0.7508238608828457 0.2491761391171543 0.7508238608828457 0.2491761391171543 0.7508238608828457 0.2491761391171543 0.7508238608828457 0.2491761391171543 0.7508238608828457 0.2491761391171543 0.9377059652207114 0.06229403477928858 0.9844264913051779 0.01557350869482215 0.9377059652207114 0.06229403477928858 0.993078440580079 0.006921559419920953 0.9377059652207114 0.06229403477928858 0.9377059652207114 0.06229403477928858 0.993078440580079 0.006921559419920953 0.9844264913051779 0.01557350869482215 0.5625828700403659 0.4374171299596342 0.5625828700403659 0.4374171299596342 0.5625828700403659 0.4374171299596342 0.5625828700403659 0.4374171299596342 0.5625828700403659 0.4374171299596342 0.5625828700403659 0.4374171299596342 0.5625828700403659 0.4374171299596342 0.5625828700403659 0.4374171299596342 0.7812914350201829 0.2187085649798171 0.7812914350201829 0.2187085649798171 0.7812914350201829 0.2187085649798171 0.9453228587550457 0.05467714124495428 0.5625828700403659 0.4374171299596342 0.5625828700403659 0.4374171299596342 0.5625828700403659 0.4374171299596342 0.5625828700403659 0.4374171299596342 0.4319621094167844 0.5680378905832157 0.4319621094167844 0.5680378905832157 0.4319621094167844 0.5680378905832157 0.4319621094167844 0.5680378905832157 0.4319621094167844 0.5680378905832157 0.4319621094167844 0.5680378905832157 0.4319621094167844 0.5680378905832157 0.4319621094167844 0.5680378905832157 0.964497631838549 0.03550236816145098 0.8579905273541961 0.1420094726458039 0.8579905273541961 0.1420094726458039 0.9842211697060217 0.01577883029397821 0.7159810547083922 0.2840189452916079 0.7159810547083922 0.2840189452916079 0.7159810547083922 0.2840189452916079 0.9289952636770981 0.07100473632290197 0.5659379766306556 0.4340620233693445 0.5659379766306556 0.4340620233693445 0.5659379766306556 0.4340620233693445 0.5659379766306556 0.4340620233693445 0.7829689883153278 0.2170310116846722 0.7829689883153278 0.2170310116846722 0.7829689883153278 0.2170310116846722 0.9457422470788319 0.05425775292116806 0.5659379766306556 0.4340620233693445 0.5659379766306556 0.4340620233693445 0.5659379766306556 0.4340620233693445 0.5659379766306556 0.4340620233693445 0.972871123539416 0.02712887646058403 0.8914844941576638 0.1085155058423361 0.8914844941576638 0.1085155058423361 0.9879427215730737 0.01205727842692624 0.7814464513888038 0.2185535486111962 0.7814464513888038 0.2185535486111962 0.7814464513888038 0.2185535486111962 0.7814464513888038 0.2185535486111962 0.7814464513888038 0.2185535486111962 0.7814464513888038 0.2185535486111962 0.7814464513888038 0.2185535486111962 0.7814464513888038 0.2185535486111962 0.9562892902777608 0.04371070972223925 0.9562892902777608 0.04371070972223925 0.9890723225694402 0.01092767743055981 0.9972680806423601 0.002731919357639953 0.8907232256944019 0.1092767743055981 0.8907232256944019 0.1092767743055981 0.8907232256944019 0.1092767743055981 0.9726808064236006 0.02731919357639953</probabilities>
		</cpt>
	</nodes>
	<extensions>
		<genie version="1.0" app="GeNIe 2.1.1104.0 ACADEMIC" name="Network2" faultnameformat="nodestate">
			<node id="Node1">
				<name>Long method</name>
				<interior color="e5f6f7" />
				<outline color="000080" />
				<font color="000000" name="Arial" size="8" />
				<position>454 183 574 213</position>
				<barchart active="true" width="128" height="64" />
			</node>
			<node id="loc">
				<name>LOC</name>
				<interior color="e5f6f7" />
				<outline color="000080" />
				<font color="000000" name="Arial" size="8" />
				<position>103 440 246 470</position>
				<barchart active="true" width="128" height="90" />
			</node>
			<node id="cyclo">
				<name>cyclo</name>
				<interior color="e5f6f7" />
				<outline color="000080" />
				<font color="000000" name="Arial" size="8" />
				<position>311 445 454 475</position>
				<barchart active="true" width="128" height="90" />
			</node>
			<node id="maxnesting">
				<name>maxnesting</name>
				<interior color="e5f6f7" />
				<outline color="000080" />
				<font color="000000" name="Arial" size="8" />
				<position>521 450 664 480</position>
				<barchart active="true" width="128" height="90" />
			</node>
			<node id="noav">
				<name>noav</name>
				<interior color="e5f6f7" />
				<outline color="000080" />
				<font color="000000" name="Arial" size="8" />
				<position>723 454 866 484</position>
				<barchart active="true" width="128" height="90" />
			</node>
		</genie>
	</extensions>
</smile>
